digraph Tree {
node [shape=box] ;
0 [label="X[0] <= 5.45\ngini = 0.498\nsamples = 70\nvalue = [33, 37]"] ;
1 [label="X[1] <= 2.85\ngini = 0.208\nsamples = 34\nvalue = [30, 4]"] ;
0 -> 1 [labeldistance=2.5, labelangle=45, headlabel="True"] ;
2 [label="X[0] <= 4.7\ngini = 0.32\nsamples = 5\nvalue = [1, 4]"] ;
1 -> 2 ;
3 [label="gini = 0.0\nsamples = 1\nvalue = [1, 0]"] ;
2 -> 3 ;
4 [label="gini = 0.0\nsamples = 4\nvalue = [0, 4]"] ;
2 -> 4 ;
5 [label="gini = 0.0\nsamples = 29\nvalue = [29, 0]"] ;
1 -> 5 ;
6 [label="X[1] <= 3.45\ngini = 0.153\nsamples = 36\nvalue = [3, 33]"] ;
0 -> 6 [labeldistance=2.5, labelangle=-45, headlabel="False"] ;
7 [label="gini = 0.0\nsamples = 33\nvalue = [0, 33]"] ;
6 -> 7 ;
8 [label="gini = 0.0\nsamples = 3\nvalue = [3, 0]"] ;
6 -> 8 ;
}